<?xml version="1.0"?>
<opencv_storage>
<cascade>
  <stageType>BOOST</stageType>
  <featureType>HAAR</featureType>
  <height>24</height>
  <width>24</width>
  <stageParams>
    <boostType>GAB</boostType>
    <minHitRate>9.9500000476837158e-01</minHitRate>
    <maxFalseAlarm>5.0000000000000000e-01</maxFalseAlarm>
    <weightTrimRate>9.4999998807907104e-01</weightTrimRate>
    <maxDepth>1</maxDepth>
    <maxWeakCount>100</maxWeakCount></stageParams>
  <featureParams>
    <maxCatCount>0</maxCatCount>
    <featSize>1</featSize>
    <mode>BASIC</mode></featureParams>
  <stageNum>13</stageNum>
  <stages>
    <!-- stage 0 -->
    <_>
      <maxWeakCount>2</maxWeakCount>
      <stageThreshold>-2.9925612732768059e-02</stageThreshold>
      <weakClassifiers>
        <_>
          <internalNodes>
            0 -1 19 1.4637107029557228e-02</internalNodes>
          <leafValues>
            -9.4383221864700317e-01 9.6764183044433594e-01</leafValues></_>
        <_>
          <internalNodes>
            0 -1 23 -3.2836154103279114e-02</internalNodes>
          <leafValues>
            9.1390657424926758e-01 -9.6464693546295166e-01</leafValues></_></weakClassifiers></_>
    <!-- stage 1 -->
    <_>
      <maxWeakCount>2</maxWeakCount>
      <stageThreshold>-1.4366357028484344e-01</stageThreshold>
      <weakClassifiers>
        <_>
          <internalNodes>
            0 -1 8 -8.5968330502510071e-02</internalNodes>
          <leafValues>
            9.1703671216964722e-01 -9.3132728338241577e-01</leafValues></_>
        <_>
          <internalNodes>
            0 -1 10 1.1899990960955620e-02</internalNodes>
          <leafValues>
            -9.5519804954528809e-01 7.8766375780105591e-01</leafValues></_></weakClassifiers></_>
    <!-- stage 2 -->
    <_>
      <maxWeakCount>2</maxWeakCount>
      <stageThreshold>-6.4597032964229584e-02</stageThreshold>
      <weakClassifiers>
        <_>
          <internalNodes>
            0 -1 4 -3.4186501055955887e-02</internalNodes>
          <leafValues>
            8.4119725227355957e-01 -9.2919647693634033e-01</leafValues></_>
        <_>
          <internalNodes>
            0 -1 16 7.2236927226185799e-03</internalNodes>
          <leafValues>
            -8.0689901113510132e-01 8.6459946632385254e-01</leafValues></_></weakClassifiers></_>
    <!-- stage 3 -->
    <_>
      <maxWeakCount>2</maxWeakCount>
      <stageThreshold>-1.6372013092041016e-01</stageThreshold>
      <weakClassifiers>
        <_>
          <internalNodes>
            0 -1 20 -1.3181766495108604e-02</internalNodes>
          <leafValues>
            8.5464739799499512e-01 -8.3779764175415039e-01</leafValues></_>
        <_>
          <internalNodes>
            0 -1 22 1.9123923033475876e-02</internalNodes>
          <leafValues>
            -8.3917611837387085e-01 6.7407751083374023e-01</leafValues></_></weakClassifiers></_>
    <!-- stage 4 -->
    <_>
      <maxWeakCount>2</maxWeakCount>
      <stageThreshold>-4.5563247799873352e-01</stageThreshold>
      <weakClassifiers>
        <_>
          <internalNodes>
            0 -1 7 -2.2470379248261452e-02</internalNodes>
          <leafValues>
            7.3346304893493652e-01 -9.4233411550521851e-01</leafValues></_>
        <_>
          <internalNodes>
            0 -1 0 -1.9800150766968727e-02</internalNodes>
          <leafValues>
            4.8670160770416260e-01 -8.9392066001892090e-01</leafValues></_></weakClassifiers></_>
    <!-- stage 5 -->
    <_>
      <maxWeakCount>2</maxWeakCount>
      <stageThreshold>-2.8808999061584473e-01</stageThreshold>
      <weakClassifiers>
        <_>
          <internalNodes>
            0 -1 15 5.5008731782436371e-02</internalNodes>
          <leafValues>
            -9.2896676063537598e-01 7.2231918573379517e-01</leafValues></_>
        <_>
          <internalNodes>
            0 -1 24 -3.9143193513154984e-02</internalNodes>
          <leafValues>
            6.4087682962417603e-01 -8.1336933374404907e-01</leafValues></_></weakClassifiers></_>
    <!-- stage 6 -->
    <_>
      <maxWeakCount>3</maxWeakCount>
      <stageThreshold>-6.6891700029373169e-01</stageThreshold>
      <weakClassifiers>
        <_>
          <internalNodes>
            0 -1 11 -3.1963479705154896e-03</internalNodes>
          <leafValues>
            6.8331497907638550e-01 -7.3084354400634766e-01</leafValues></_>
        <_>
          <internalNodes>
            0 -1 28 9.0700825676321983e-03</internalNodes>
          <leafValues>
            -7.0193982124328613e-01 6.5232402086257935e-01</leafValues></_>
        <_>
          <internalNodes>
            0 -1 14 2.2858940064907074e-02</internalNodes>
          <leafValues>
            -5.6761062145233154e-01 7.6386636495590210e-01</leafValues></_></weakClassifiers></_>
    <!-- stage 7 -->
    <_>
      <maxWeakCount>4</maxWeakCount>
      <stageThreshold>-2.8443580865859985e-01</stageThreshold>
      <weakClassifiers>
        <_>
          <internalNodes>
            0 -1 26 4.4082473032176495e-03</internalNodes>
          <leafValues>
            -7.1291863918304443e-01 6.9582444429397583e-01</leafValues></_>
        <_>
          <internalNodes>
            0 -1 14 2.5660283863544464e-02</internalNodes>
          <leafValues>
            -5.2850842475891113e-01 7.5796782970428467e-01</leafValues></_>
        <_>
          <internalNodes>
            0 -1 1 -2.0925473421812057e-02</internalNodes>
          <leafValues>
            5.1552772521972656e-01 -8.4841716289520264e-01</leafValues></_>
        <_>
          <internalNodes>
            0 -1 6 -5.0587795674800873e-02</internalNodes>
          <leafValues>
            5.1893222332000732e-01 -8.0680614709854126e-01</leafValues></_></weakClassifiers></_>
    <!-- stage 8 -->
    <_>
      <maxWeakCount>4</maxWeakCount>
      <stageThreshold>-6.4728772640228271e-01</stageThreshold>
      <weakClassifiers>
        <_>
          <internalNodes>
            0 -1 5 2.4547599605284631e-04</internalNodes>
          <leafValues>
            6.3218605518341064e-01 -8.0117821693420410e-01</leafValues></_>
        <_>
          <internalNodes>
            0 -1 17 -5.8558480814099312e-03</internalNodes>
          <leafValues>
            5.3495121002197266e-01 -7.6020634174346924e-01</leafValues></_>
        <_>
          <internalNodes>
            0 -1 18 3.5852521657943726e-02</internalNodes>
          <leafValues>
            -7.7144056558609009e-01 5.1407605409622192e-01</leafValues></_>
        <_>
          <internalNodes>
            0 -1 3 -1.5288598835468292e-02</internalNodes>
          <leafValues>
            4.0002080798149109e-01 -7.9111653566360474e-01</leafValues></_></weakClassifiers></_>
    <!-- stage 9 -->
    <_>
      <maxWeakCount>3</maxWeakCount>
      <stageThreshold>-1.5814445912837982e-01</stageThreshold>
      <weakClassifiers>
        <_>
          <internalNodes>
            0 -1 9 -2.4528376525267959e-04</internalNodes>
          <leafValues>
            -8.7359166145324707e-01 5.9949141740798950e-01</leafValues></_>
        <_>
          <internalNodes>
            0 -1 25 -1.0411363095045090e-01</internalNodes>
          <leafValues>
            4.5334830880165100e-01 -7.1269458532333374e-01</leafValues></_>
        <_>
          <internalNodes>
            0 -1 9 2.0670813682954758e-05</internalNodes>
          <leafValues>
            2.6209887862205505e-01 -1.</leafValues></_></weakClassifiers></_>
    <!-- stage 10 -->
    <_>
      <maxWeakCount>1</maxWeakCount>
      <stageThreshold>5.9129512310028076e-01</stageThreshold>
      <weakClassifiers>
        <_>
          <internalNodes>
            0 -1 29 5.1764647650998086e-05</internalNodes>
          <leafValues>
            5.9129512310028076e-01 -9.7489541769027710e-01</leafValues></_></weakClassifiers></_>
    <!-- stage 11 -->
    <_>
      <maxWeakCount>1</maxWeakCount>
      <stageThreshold>6.4022511243820190e-01</stageThreshold>
      <weakClassifiers>
        <_>
          <internalNodes>
            0 -1 29 -2.1277433916111477e-05</internalNodes>
          <leafValues>
            -1. 6.4022511243820190e-01</leafValues></_></weakClassifiers></_>
    <!-- stage 12 -->
    <_>
      <maxWeakCount>5</maxWeakCount>
      <stageThreshold>-1.1139128208160400e+00</stageThreshold>
      <weakClassifiers>
        <_>
          <internalNodes>
            0 -1 21 2.5860522873699665e-03</internalNodes>
          <leafValues>
            -8.7068963050842285e-01 5.1985561847686768e-01</leafValues></_>
        <_>
          <internalNodes>
            0 -1 12 -1.3962205499410629e-02</internalNodes>
          <leafValues>
            4.9930706620216370e-01 -6.5788221359252930e-01</leafValues></_>
        <_>
          <internalNodes>
            0 -1 27 8.5826776921749115e-03</internalNodes>
          <leafValues>
            -7.6673501729965210e-01 3.7221145629882813e-01</leafValues></_>
        <_>
          <internalNodes>
            0 -1 13 -1.9670142792165279e-03</internalNodes>
          <leafValues>
            3.2049310207366943e-01 -7.5371211767196655e-01</leafValues></_>
        <_>
          <internalNodes>
            0 -1 2 -2.1349724556785077e-04</internalNodes>
          <leafValues>
            3.2474973797798157e-01 -5.9438556432723999e-01</leafValues></_></weakClassifiers></_></stages>
  <features>
    <_>
      <rects>
        <_>
          0 0 10 3 -1.</_>
        <_>
          5 0 5 3 2.</_></rects>
      <tilted>0</tilted></_>
    <_>
      <rects>
        <_>
          0 0 16 2 -1.</_>
        <_>
          8 0 8 2 2.</_></rects>
      <tilted>0</tilted></_>
    <_>
      <rects>
        <_>
          0 5 2 2 -1.</_>
        <_>
          0 6 2 1 2.</_></rects>
      <tilted>0</tilted></_>
    <_>
      <rects>
        <_>
          0 17 4 6 -1.</_>
        <_>
          2 17 2 6 2.</_></rects>
      <tilted>0</tilted></_>
    <_>
      <rects>
        <_>
          0 19 8 4 -1.</_>
        <_>
          4 19 4 4 2.</_></rects>
      <tilted>0</tilted></_>
    <_>
      <rects>
        <_>
          0 20 1 4 -1.</_>
        <_>
          0 22 1 2 2.</_></rects>
      <tilted>0</tilted></_>
    <_>
      <rects>
        <_>
          0 22 14 2 -1.</_>
        <_>
          7 22 7 2 2.</_></rects>
      <tilted>0</tilted></_>
    <_>
      <rects>
        <_>
          0 22 16 1 -1.</_>
        <_>
          8 22 8 1 2.</_></rects>
      <tilted>0</tilted></_>
    <_>
      <rects>
        <_>
          0 22 24 2 -1.</_>
        <_>
          8 22 8 2 3.</_></rects>
      <tilted>0</tilted></_>
    <_>
      <rects>
        <_>
          0 23 4 1 -1.</_>
        <_>
          2 23 2 1 2.</_></rects>
      <tilted>0</tilted></_>
    <_>
      <rects>
        <_>
          1 18 5 6 -1.</_>
        <_>
          1 21 5 3 2.</_></rects>
      <tilted>0</tilted></_>
    <_>
      <rects>
        <_>
          2 0 7 2 -1.</_>
        <_>
          2 1 7 1 2.</_></rects>
      <tilted>0</tilted></_>
    <_>
      <rects>
        <_>
          3 0 17 2 -1.</_>
        <_>
          3 1 17 1 2.</_></rects>
      <tilted>0</tilted></_>
    <_>
      <rects>
        <_>
          3 15 2 8 -1.</_>
        <_>
          3 15 1 4 2.</_>
        <_>
          4 19 1 4 2.</_></rects>
      <tilted>0</tilted></_>
    <_>
      <rects>
        <_>
          5 22 14 2 -1.</_>
        <_>
          5 23 14 1 2.</_></rects>
      <tilted>0</tilted></_>
    <_>
      <rects>
        <_>
          14 20 10 4 -1.</_>
        <_>
          19 20 5 4 2.</_></rects>
      <tilted>0</tilted></_>
    <_>
      <rects>
        <_>
          14 22 6 2 -1.</_>
        <_>
          14 23 6 1 2.</_></rects>
      <tilted>0</tilted></_>
    <_>
      <rects>
        <_>
          15 0 6 2 -1.</_>
        <_>
          15 1 6 1 2.</_></rects>
      <tilted>0</tilted></_>
    <_>
      <rects>
        <_>
          15 15 8 8 -1.</_>
        <_>
          15 15 4 4 2.</_>
        <_>
          19 19 4 4 2.</_></rects>
      <tilted>0</tilted></_>
    <_>
      <rects>
        <_>
          16 20 6 4 -1.</_>
        <_>
          16 22 6 2 2.</_></rects>
      <tilted>0</tilted></_>
    <_>
      <rects>
        <_>
          17 0 5 4 -1.</_>
        <_>
          17 2 5 2 2.</_></rects>
      <tilted>0</tilted></_>
    <_>
      <rects>
        <_>
          17 20 6 2 -1.</_>
        <_>
          17 21 6 1 2.</_></rects>
      <tilted>0</tilted></_>
    <_>
      <rects>
        <_>
          20 17 4 5 -1.</_>
        <_>
          22 17 2 5 2.</_></rects>
      <tilted>0</tilted></_>
    <_>
      <rects>
        <_>
          21 0 3 12 -1.</_>
        <_>
          21 6 3 6 2.</_></rects>
      <tilted>0</tilted></_>
    <_>
      <rects>
        <_>
          22 0 2 12 -1.</_>
        <_>
          22 6 2 6 2.</_></rects>
      <tilted>0</tilted></_>
    <_>
      <rects>
        <_>
          22 0 2 24 -1.</_>
        <_>
          22 8 2 8 3.</_></rects>
      <tilted>0</tilted></_>
    <_>
      <rects>
        <_>
          22 2 2 6 -1.</_>
        <_>
          23 2 1 6 2.</_></rects>
      <tilted>0</tilted></_>
    <_>
      <rects>
        <_>
          22 13 2 9 -1.</_>
        <_>
          23 13 1 9 2.</_></rects>
      <tilted>0</tilted></_>
    <_>
      <rects>
        <_>
          22 14 2 7 -1.</_>
        <_>
          23 14 1 7 2.</_></rects>
      <tilted>0</tilted></_>
    <_>
      <rects>
        <_>
          22 22 2 2 -1.</_>
        <_>
          23 22 1 2 2.</_></rects>
      <tilted>0</tilted></_></features></cascade>
</opencv_storage>
